digraph Tree {
node [shape=box] ;
0 [label="Sex <= 0.5\ngini = 0.473\nsamples = 891\nvalue = [549, 342]"] ;
1 [label="Pclass <= 2.5\ngini = 0.383\nsamples = 314\nvalue = [81, 233]"] ;
0 -> 1 [labeldistance=2.5, labelangle=45, headlabel="True"] ;
2 [label="Age <= 2.5\ngini = 0.1\nsamples = 170\nvalue = [9, 161]"] ;
1 -> 2 ;
3 [label="Pclass <= 1.5\ngini = 0.5\nsamples = 2\nvalue = [1, 1]"] ;
2 -> 3 ;
4 [label="gini = 0.0\nsamples = 1\nvalue = [1, 0]"] ;
3 -> 4 ;
5 [label="gini = 0.0\nsamples = 1\nvalue = [0, 1]"] ;
3 -> 5 ;
6 [label="Pclass <= 1.5\ngini = 0.091\nsamples = 168\nvalue = [8, 160]"] ;
2 -> 6 ;
7 [label="gini = 0.042\nsamples = 93\nvalue = [2, 91]"] ;
6 -> 7 ;
8 [label="gini = 0.147\nsamples = 75\nvalue = [6, 69]"] ;
6 -> 8 ;
9 [label="Embarked_S <= 0.5\ngini = 0.5\nsamples = 144\nvalue = [72, 72]"] ;
1 -> 9 ;
10 [label="Age <= 29.75\ngini = 0.423\nsamples = 56\nvalue = [17, 39]"] ;
9 -> 10 ;
11 [label="gini = 0.375\nsamples = 52\nvalue = [13, 39]"] ;
10 -> 11 ;
12 [label="gini = 0.0\nsamples = 4\nvalue = [4, 0]"] ;
10 -> 12 ;
13 [label="Age <= 38.5\ngini = 0.469\nsamples = 88\nvalue = [55, 33]"] ;
9 -> 13 ;
14 [label="gini = 0.484\nsamples = 78\nvalue = [46, 32]"] ;
13 -> 14 ;
15 [label="gini = 0.18\nsamples = 10\nvalue = [9, 1]"] ;
13 -> 15 ;
16 [label="Age <= 6.5\ngini = 0.306\nsamples = 577\nvalue = [468, 109]"] ;
0 -> 16 [labeldistance=2.5, labelangle=-45, headlabel="False"] ;
17 [label="Pclass <= 2.5\ngini = 0.444\nsamples = 24\nvalue = [8, 16]"] ;
16 -> 17 ;
18 [label="gini = 0.0\nsamples = 10\nvalue = [0, 10]"] ;
17 -> 18 ;
19 [label="Embarked_Q <= 0.5\ngini = 0.49\nsamples = 14\nvalue = [8, 6]"] ;
17 -> 19 ;
20 [label="gini = 0.5\nsamples = 12\nvalue = [6, 6]"] ;
19 -> 20 ;
21 [label="gini = 0.0\nsamples = 2\nvalue = [2, 0]"] ;
19 -> 21 ;
22 [label="Pclass <= 1.5\ngini = 0.28\nsamples = 553\nvalue = [460, 93]"] ;
16 -> 22 ;
23 [label="Age <= 53.0\ngini = 0.46\nsamples = 120\nvalue = [77, 43]"] ;
22 -> 23 ;
24 [label="gini = 0.483\nsamples = 98\nvalue = [58, 40]"] ;
23 -> 24 ;
25 [label="gini = 0.236\nsamples = 22\nvalue = [19, 3]"] ;
23 -> 25 ;
26 [label="Age <= 13.0\ngini = 0.204\nsamples = 433\nvalue = [383, 50]"] ;
22 -> 26 ;
27 [label="gini = 0.444\nsamples = 12\nvalue = [8, 4]"] ;
26 -> 27 ;
28 [label="gini = 0.195\nsamples = 421\nvalue = [375, 46]"] ;
26 -> 28 ;
}